<?xml version="1.0" encoding="utf-8"?>
<Root>
  <ActivationFunctions>
    <Fn id="0" name="SteepenedSigmoid" prob="1" />
  </ActivationFunctions>
  <Networks>
    <Network id="21009" birthGen="526" fitness="6.7476191520690918">
      <Nodes>
        <Node type="bias" id="0" />
        <Node type="in" id="1" />
        <Node type="in" id="2" />
        <Node type="in" id="3" />
        <Node type="in" id="4" />
        <Node type="out" id="5" />
        <Node type="out" id="6" />
        <Node type="out" id="7" />
        <Node type="out" id="8" />
        <Node type="hid" id="178" />
        <Node type="hid" id="205" />
        <Node type="hid" id="266" />
        <Node type="hid" id="276" />
        <Node type="hid" id="300" />
      </Nodes>
      <Connections>
        <Con id="35" src="1" tgt="5" wght="3.01755916679973" />
        <Con id="47" src="3" tgt="7" wght="-3.9977268803903288" />
        <Con id="48" src="0" tgt="5" wght="2.5195393481349129" />
        <Con id="180" src="178" tgt="5" wght="3.1712647488459647" />
        <Con id="197" src="178" tgt="6" wght="-4.21987455381954" />
        <Con id="206" src="178" tgt="205" wght="-1.3764380773510521" />
        <Con id="254" src="2" tgt="178" wght="3.4890932489988473" />
        <Con id="267" src="178" tgt="266" wght="2.7600921661199713" />
        <Con id="301" src="205" tgt="300" wght="4.4021585137719246" />
        <Con id="302" src="300" tgt="276" wght="4.9836969804310547" />
        <Con id="325" src="266" tgt="8" wght="2.8945988789200783" />
      </Connections>
    </Network>
  </Networks>
</Root>